digraph Tree {
node [shape=box, style="rounded", color="black", fontname=helvetica] ;
edge [fontname=helvetica] ;
0 [label="price_in_eur <= 4.0\nmse = 0.5\nsamples = 42283\nvalue = 3.8"] ;
1 [label="price_in_eur <= 3.5\nmse = 0.2\nsamples = 21686\nvalue = 3.2"] ;
0 -> 1 [labeldistance=2.5, labelangle=45, headlabel="True"] ;
2 [label="price_in_eur <= 3.2\nmse = 0.1\nsamples = 10312\nvalue = 3.0"] ;
1 -> 2 ;
3 [label="mse = 0.1\nsamples = 6333\nvalue = 2.8"] ;
2 -> 3 ;
4 [label="mse = 0.1\nsamples = 3979\nvalue = 3.1"] ;
2 -> 4 ;
5 [label="price_in_eur <= 3.8\nmse = 0.1\nsamples = 11374\nvalue = 3.5"] ;
1 -> 5 ;
6 [label="mse = 0.1\nsamples = 5300\nvalue = 3.3"] ;
5 -> 6 ;
7 [label="mse = 0.1\nsamples = 6074\nvalue = 3.6"] ;
5 -> 7 ;
8 [label="price_in_eur <= 4.8\nmse = 0.3\nsamples = 20597\nvalue = 4.4"] ;
0 -> 8 [labeldistance=2.5, labelangle=-45, headlabel="False"] ;
9 [label="price_in_eur <= 4.4\nmse = 0.1\nsamples = 13322\nvalue = 4.1"] ;
8 -> 9 ;
10 [label="mse = 0.1\nsamples = 6714\nvalue = 3.9"] ;
9 -> 10 ;
11 [label="mse = 0.1\nsamples = 6608\nvalue = 4.3"] ;
9 -> 11 ;
12 [label="price_in_eur <= 5.1\nmse = 0.1\nsamples = 7275\nvalue = 4.8"] ;
8 -> 12 ;
13 [label="mse = 0.1\nsamples = 3784\nvalue = 4.6"] ;
12 -> 13 ;
14 [label="mse = 0.1\nsamples = 3491\nvalue = 5.0"] ;
12 -> 14 ;
}