digraph Tree {
node [shape=box, style="rounded", color="black", fontname=helvetica] ;
edge [fontname=helvetica] ;
0 [label="price_in_eur <= 4.1\nmse = 0.5\nsamples = 42393\nvalue = 3.8"] ;
1 [label="price_in_eur <= 3.5\nmse = 0.2\nsamples = 22726\nvalue = 3.3"] ;
0 -> 1 [labeldistance=2.5, labelangle=45, headlabel="True"] ;
2 [label="price_in_eur <= 3.2\nmse = 0.1\nsamples = 10307\nvalue = 2.9"] ;
1 -> 2 ;
3 [label="mse = 0.1\nsamples = 6324\nvalue = 2.8"] ;
2 -> 3 ;
4 [label="mse = 0.1\nsamples = 3983\nvalue = 3.1"] ;
2 -> 4 ;
5 [label="price_in_eur <= 3.8\nmse = 0.1\nsamples = 12419\nvalue = 3.5"] ;
1 -> 5 ;
6 [label="mse = 0.1\nsamples = 5219\nvalue = 3.4"] ;
5 -> 6 ;
7 [label="mse = 0.1\nsamples = 7200\nvalue = 3.7"] ;
5 -> 7 ;
8 [label="price_in_eur <= 4.7\nmse = 0.2\nsamples = 19667\nvalue = 4.4"] ;
0 -> 8 [labeldistance=2.5, labelangle=-45, headlabel="False"] ;
9 [label="price_in_eur <= 4.4\nmse = 0.1\nsamples = 12134\nvalue = 4.1"] ;
8 -> 9 ;
10 [label="mse = 0.1\nsamples = 5668\nvalue = 4.0"] ;
9 -> 10 ;
11 [label="mse = 0.1\nsamples = 6466\nvalue = 4.3"] ;
9 -> 11 ;
12 [label="price_in_eur <= 5.0\nmse = 0.1\nsamples = 7533\nvalue = 4.8"] ;
8 -> 12 ;
13 [label="mse = 0.1\nsamples = 3941\nvalue = 4.6"] ;
12 -> 13 ;
14 [label="mse = 0.1\nsamples = 3592\nvalue = 5.0"] ;
12 -> 14 ;
}